<?xml version="1.0"?>
<opencv_storage>
<cascade type_id="opencv-haar-classifier"><size>
    50 50</size>
  <stages>
    <_>
      <trees>
        <_>
          <_>
            <feature>
              <rects>
                <_>
                  1 5 24 42 -1.</_>
                <_>
                  1 5 12 21 2.</_>
                <_>
                  13 26 12 21 2.</_></rects>
              <tilted>0</tilted></feature>
            <threshold>1.6169233620166779e-01</threshold>
            <left_val>-9.4363459669582139e-01</left_val>
            <right_val>1.</right_val></_></_>
        <_>
          <_>
            <feature>
              <rects>
                <_>
                  12 17 28 16 -1.</_>
                <_>
                  12 17 14 8 2.</_>
                <_>
                  26 25 14 8 2.</_></rects>
              <tilted>0</tilted></feature>
            <threshold>3.6053385585546494e-02</threshold>
            <left_val>-8.5784365982883193e-01</left_val>
            <right_val>3.9937714786725231e-01</right_val></_></_>
        <_>
          <_>
            <feature>
              <rects>
                <_>
                  6 7 18 26 -1.</_>
                <_>
                  6 7 9 13 2.</_>
                <_>
                  15 20 9 13 2.</_></rects>
              <tilted>0</tilted></feature>
            <threshold>2.7641039341688156e-02</threshold>
            <left_val>-6.7691825115322313e-01</left_val>
            <right_val>7.4652747082284587e-01</right_val></_></_>
        <_>
          <_>
            <feature>
              <rects>
                <_>
                  0 41 6 7 -1.</_>
                <_>
                  2 41 2 7 2.</_></rects>
              <tilted>0</tilted></feature>
            <threshold>-1.2795552611351013e-02</threshold>
            <left_val>-6.1574754013176158e-01</left_val>
            <right_val>5.9430130283453797e-01</right_val></_></_>
        <_>
          <_>
            <feature>
              <rects>
                <_>
                  18 11 22 6 -1.</_>
                <_>
                  18 11 11 3 2.</_>
                <_>
                  29 14 11 3 2.</_></rects>
              <tilted>0</tilted></feature>
            <threshold>5.2550751715898514e-03</threshold>
            <left_val>-4.6731011502067293e-01</left_val>
            <right_val>6.9630645355046650e-01</right_val></_></_>
        <_>
          <_>
            <feature>
              <rects>
                <_>
                  26 38 22 8 -1.</_>
                <_>
                  26 38 11 4 2.</_>
                <_>
                  37 42 11 4 2.</_></rects>
              <tilted>0</tilted></feature>
            <threshold>2.5093433214351535e-04</threshold>
            <left_val>3.4495737695962680e-01</left_val>
            <right_val>-8.6314361046352861e-01</right_val></_></_></trees>
      <stage_threshold>-2.0064480304718018e+00</stage_threshold>
      <parent>-1</parent>
      <next>-1</next></_>
    <_>
      <trees>
        <_>
          <_>
            <feature>
              <rects>
                <_>
                  0 25 6 17 -1.</_>
                <_>
                  3 25 3 17 2.</_></rects>
              <tilted>0</tilted></feature>
            <threshold>-1.4344654977321625e-02</threshold>
            <left_val>7.0909090909090955e-01</left_val>
            <right_val>-9.2996108949416345e-01</right_val></_></_>
        <_>
          <_>
            <feature>
              <rects>
                <_>
                  0 6 18 19 -1.</_>
                <_>
                  9 6 9 19 2.</_></rects>
              <tilted>0</tilted></feature>
            <threshold>-7.2356089949607849e-02</threshold>
            <left_val>7.8343839567800999e-01</left_val>
            <right_val>-7.4297308474613721e-01</right_val></_></_>
        <_>
          <_>
            <feature>
              <rects>
                <_>
                  3 3 46 3 -1.</_>
                <_>
                  3 4 46 1 2.</_></rects>
              <tilted>0</tilted></feature>
            <threshold>-5.6198954582214355e-02</threshold>
            <left_val>-7.7914720361519973e-01</left_val>
            <right_val>3.7407434469541789e-01</right_val></_></_>
        <_>
          <_>
            <feature>
              <rects>
                <_>
                  20 24 19 18 -1.</_>
                <_>
                  20 33 19 9 2.</_></rects>
              <tilted>0</tilted></feature>
            <threshold>2.2645266726613045e-03</threshold>
            <left_val>-7.0593580634171771e-01</left_val>
            <right_val>4.7354919386115391e-01</right_val></_></_>
        <_>
          <_>
            <feature>
              <rects>
                <_>
                  6 12 10 10 -1.</_>
                <_>
                  11 12 5 10 2.</_></rects>
              <tilted>0</tilted></feature>
            <threshold>1.3359156437218189e-02</threshold>
            <left_val>-4.0984010589088049e-01</left_val>
            <right_val>8.3851883761808377e-01</right_val></_></_>
        <_>
          <_>
            <feature>
              <rects>
                <_>
                  22 48 28 2 -1.</_>
                <_>
                  22 49 28 1 2.</_></rects>
              <tilted>0</tilted></feature>
            <threshold>-1.7790624406188726e-04</threshold>
            <left_val>-8.5716178434349277e-01</left_val>
            <right_val>3.5666878120316553e-01</right_val></_></_>
        <_>
          <_>
            <feature>
              <rects>
                <_>
                  5 12 8 38 -1.</_>
                <_>
                  5 12 4 19 2.</_>
                <_>
                  9 31 4 19 2.</_></rects>
              <tilted>0</tilted></feature>
            <threshold>2.3388322442770004e-02</threshold>
            <left_val>-3.5874182212304045e-01</left_val>
            <right_val>9.0937369885677288e-01</right_val></_></_>
        <_>
          <_>
            <feature>
              <rects>
                <_>
                  36 22 3 4 -1.</_>
                <_>
                  36 24 3 2 2.</_></rects>
              <tilted>0</tilted></feature>
            <threshold>-6.3899802626110613e-05</threshold>
            <left_val>-8.6774285339015944e-01</left_val>
            <right_val>3.8235140875354973e-01</right_val></_></_></trees>
      <stage_threshold>-2.0343573093414307e+00</stage_threshold>
      <parent>0</parent>
      <next>-1</next></_>
    <_>
      <trees>
        <_>
          <_>
            <feature>
              <rects>
                <_>
                  2 3 20 40 -1.</_>
                <_>
                  2 3 10 20 2.</_>
                <_>
                  12 23 10 20 2.</_></rects>
              <tilted>0</tilted></feature>
            <threshold>1.4805307984352112e-01</threshold>
            <left_val>-9.2179863147605101e-01</left_val>
            <right_val>4.3333333333333379e-01</right_val></_></_>
        <_>
          <_>
            <feature>
              <rects>
                <_>
                  3 44 16 2 -1.</_>
                <_>
                  11 44 8 2 2.</_></rects>
              <tilted>0</tilted></feature>
            <threshold>6.4429086633026600e-03</threshold>
            <left_val>-7.9421396457410176e-01</left_val>
            <right_val>1.5393922334972035e-01</right_val></_></_>
        <_>
          <_>
            <feature>
              <rects>
                <_>
                  18 11 22 6 -1.</_>
                <_>
                  18 11 11 3 2.</_>
                <_>
                  29 14 11 3 2.</_></rects>
              <tilted>0</tilted></feature>
            <threshold>7.8588975593447685e-03</threshold>
            <left_val>-4.6608142599512531e-01</left_val>
            <right_val>6.6870169418116099e-01</right_val></_></_>
        <_>
          <_>
            <feature>
              <rects>
                <_>
                  36 30 6 10 -1.</_>
                <_>
                  36 30 3 5 2.</_>
                <_>
                  39 35 3 5 2.</_></rects>
              <tilted>0</tilted></feature>
            <threshold>1.0034259321400896e-04</threshold>
            <left_val>2.8636696220088786e-01</left_val>
            <right_val>-8.5345735135369605e-01</right_val></_></_>
        <_>
          <_>
            <feature>
              <rects>
                <_>
                  35 27 3 4 -1.</_>
                <_>
                  35 29 3 2 2.</_></rects>
              <tilted>0</tilted></feature>
            <threshold>-1.7058913726941682e-05</threshold>
            <left_val>-8.6041306219916425e-01</left_val>
            <right_val>2.4367374388145149e-01</right_val></_></_>
        <_>
          <_>
            <feature>
              <rects>
                <_>
                  16 38 1 8 -1.</_>
                <_>
                  16 42 1 4 2.</_></rects>
              <tilted>0</tilted></feature>
            <threshold>-3.9345519326161593e-05</threshold>
            <left_val>-8.9681706141865358e-01</left_val>
            <right_val>2.1124371908554329e-01</right_val></_></_></trees>
      <stage_threshold>-1.4458508491516113e+00</stage_threshold>
      <parent>1</parent>
      <next>-1</next></_>
    <_>
      <trees>
        <_>
          <_>
            <feature>
              <rects>
                <_>
                  0 15 16 32 -1.</_>
                <_>
                  0 15 8 16 2.</_>
                <_>
                  8 31 8 16 2.</_></rects>
              <tilted>0</tilted></feature>
            <threshold>7.8889518976211548e-02</threshold>
            <left_val>-9.2929292929292928e-01</left_val>
            <right_val>3.2258064516129011e-02</right_val></_></_>
        <_>
          <_>
            <feature>
              <rects>
                <_>
                  28 7 13 2 -1.</_>
                <_>
                  28 8 13 1 2.</_></rects>
              <tilted>0</tilted></feature>
            <threshold>-1.4633371029049158e-03</threshold>
            <left_val>5.2556205467405359e-01</left_val>
            <right_val>-7.3216199909670554e-01</right_val></_></_>
        <_>
          <_>
            <feature>
              <rects>
                <_>
                  20 18 16 4 -1.</_>
                <_>
                  20 20 16 2 2.</_></rects>
              <tilted>0</tilted></feature>
            <threshold>1.9718846306204796e-03</threshold>
            <left_val>-6.4002290621279334e-01</left_val>
            <right_val>5.5411753156868426e-01</right_val></_></_>
        <_>
          <_>
            <feature>
              <rects>
                <_>
                  26 3 6 22 -1.</_>
                <_>
                  26 3 3 11 2.</_>
                <_>
                  29 14 3 11 2.</_></rects>
              <tilted>0</tilted></feature>
            <threshold>3.9514037780463696e-03</threshold>
            <left_val>-4.5175423596983388e-01</left_val>
            <right_val>5.9925670835062939e-01</right_val></_></_>
        <_>
          <_>
            <feature>
              <rects>
                <_>
                  0 29 4 17 -1.</_>
                <_>
                  2 29 2 17 2.</_></rects>
              <tilted>0</tilted></feature>
            <threshold>-3.9499010890722275e-03</threshold>
            <left_val>6.8508019860526559e-01</left_val>
            <right_val>-3.3666861876720611e-01</right_val></_></_>
        <_>
          <_>
            <feature>
              <rects>
                <_>
                  17 27 10 20 -1.</_>
                <_>
                  17 27 5 10 2.</_>
                <_>
                  22 37 5 10 2.</_></rects>
              <tilted>0</tilted></feature>
            <threshold>5.0675507736741565e-06</threshold>
            <left_val>3.0324922263792059e-01</left_val>
            <right_val>-7.8126205546772565e-01</right_val></_></_>
        <_>
          <_>
            <feature>
              <rects>
                <_>
                  2 1 20 2 -1.</_>
                <_>
                  2 1 10 1 2.</_>
                <_>
                  12 2 10 1 2.</_></rects>
              <tilted>0</tilted></feature>
            <threshold>2.8971753636142239e-05</threshold>
            <left_val>3.1133141079730225e-01</left_val>
            <right_val>-7.5936836944859309e-01</right_val></_></_>
        <_>
          <_>
            <feature>
              <rects>
                <_>
                  6 19 6 16 -1.</_>
                <_>
                  6 19 3 8 2.</_>
                <_>
                  9 27 3 8 2.</_></rects>
              <tilted>0</tilted></feature>
            <threshold>-4.6016261912882328e-03</threshold>
            <left_val>6.8198618197669314e-01</left_val>
            <right_val>-3.4180101369444921e-01</right_val></_></_>
        <_>
          <_>
            <feature>
              <rects>
                <_>
                  1 0 1 6 -1.</_>
                <_>
                  1 3 1 3 2.</_></rects>
              <tilted>0</tilted></feature>
            <threshold>4.8263558710459620e-05</threshold>
            <left_val>2.8324424250957025e-01</left_val>
            <right_val>-8.4204662696965149e-01</right_val></_></_>
        <_>
          <_>
            <feature>
              <rects>
                <_>
                  18 49 14 1 -1.</_>
                <_>
                  25 49 7 1 2.</_></rects>
              <tilted>0</tilted></feature>
            <threshold>-1.2584975593199488e-05</threshold>
            <left_val>-7.0194775488927652e-01</left_val>
            <right_val>2.2513810952698318e-01</right_val></_></_>
        <_>
          <_>
            <feature>
              <rects>
                <_>
                  0 0 18 8 -1.</_>
                <_>
                  0 0 9 4 2.</_>
                <_>
                  9 4 9 4 2.</_></rects>
              <tilted>0</tilted></feature>
            <threshold>-2.6285487692803144e-03</threshold>
            <left_val>5.9625098918123598e-01</left_val>
            <right_val>-3.5483193627057691e-01</right_val></_></_>
        <_>
          <_>
            <feature>
              <rects>
                <_>
                  40 10 4 6 -1.</_>
                <_>
                  40 12 4 2 2.</_></rects>
              <tilted>0</tilted></feature>
            <threshold>-8.4807230450678617e-05</threshold>
            <left_val>-2.2723889072720066e-01</left_val>
            <right_val>9.9082974597157436e-01</right_val></_></_></trees>
      <stage_threshold>-1.6727409362792969e+00</stage_threshold>
      <parent>2</parent>
      <next>-1</next></_>
    <_>
      <trees>
        <_>
          <_>
            <feature>
              <rects>
                <_>
                  48 1 2 13 -1.</_>
                <_>
                  49 1 1 13 2.</_></rects>
              <tilted>0</tilted></feature>
            <threshold>1.4479255769401789e-03</threshold>
            <left_val>-9.2149165848871462e-01</left_val>
            <right_val>3.4375000000000028e-01</right_val></_></_>
        <_>
          <_>
            <feature>
              <rects>
                <_>
                  5 38 14 1 -1.</_>
                <_>
                  12 38 7 1 2.</_></rects>
              <tilted>0</tilted></feature>
            <threshold>9.9670840427279472e-04</threshold>
            <left_val>-8.6903532378120840e-01</left_val>
            <right_val>1.9698836885438914e-01</right_val></_></_>
        <_>
          <_>
            <feature>
              <rects>
                <_>
                  26 10 16 2 -1.</_>
                <_>
                  26 11 16 1 2.</_></rects>
              <tilted>0</tilted></feature>
            <threshold>1.3361324090510607e-03</threshold>
            <left_val>-4.9943562905800898e-01</left_val>
            <right_val>7.1706368037751389e-01</right_val></_></_>
        <_>
          <_>
            <feature>
              <rects>
                <_>
                  18 23 28 16 -1.</_>
                <_>
                  18 23 14 8 2.</_>
                <_>
                  32 31 14 8 2.</_></rects>
              <tilted>0</tilted></feature>
            <threshold>-5.7399566285312176e-03</threshold>
            <left_val>5.5677452569441110e-01</left_val>
            <right_val>-5.0560839342066399e-01</right_val></_></_>
        <_>
          <_>
            <feature>
              <rects>
                <_>
                  18 30 10 3 -1.</_>
                <_>
                  18 31 10 1 2.</_></rects>
              <tilted>0</tilted></feature>
            <threshold>-1.7402743920683861e-02</threshold>
            <left_val>-9.6350957290196382e-01</left_val>
            <right_val>2.6157973968225184e-01</right_val></_></_>
        <_>
          <_>
            <feature>
              <rects>
                <_>
                  4 6 24 2 -1.</_>
                <_>
                  4 6 12 1 2.</_>
                <_>
                  16 7 12 1 2.</_></rects>
              <tilted>0</tilted></feature>
            <threshold>1.2643173104152083e-03</threshold>
            <left_val>-3.1603497120406959e-01</left_val>
            <right_val>8.0072363115797185e-01</right_val></_></_>
        <_>
          <_>
            <feature>
              <rects>
                <_>
                  2 24 4 12 -1.</_>
                <_>
                  2 24 2 6 2.</_>
                <_>
                  4 30 2 6 2.</_></rects>
              <tilted>0</tilted></feature>
            <threshold>2.2913138382136822e-03</threshold>
            <left_val>-2.5746285535564567e-01</left_val>
            <right_val>7.0302377029908325e-01</right_val></_></_>
        <_>
          <_>
            <feature>
              <rects>
                <_>
                  47 29 2 10 -1.</_>
                <_>
                  47 34 2 5 2.</_></rects>
              <tilted>0</tilted></feature>
            <threshold>-2.5913084391504526e-04</threshold>
            <left_val>-8.9652081309006226e-01</left_val>
            <right_val>2.0445422988967821e-01</right_val></_></_>
        <_>
          <_>
            <feature>
              <rects>
                <_>
                  38 1 12 2 -1.</_>
                <_>
                  38 1 6 1 2.</_>
                <_>
                  44 2 6 1 2.</_></rects>
              <tilted>0</tilted></feature>
            <threshold>1.1497722880449146e-05</threshold>
            <left_val>-3.5267528237766133e-01</left_val>
            <right_val>5.1604015374449042e-01</right_val></_></_>
        <_>
          <_>
            <feature>
              <rects>
                <_>
                  45 33 1 12 -1.</_>
                <_>
                  45 39 1 6 2.</_></rects>
              <tilted>0</tilted></feature>
            <threshold>1.0952624870697036e-04</threshold>
            <left_val>1.9264513337352984e-01</left_val>
            <right_val>-7.6665178162567782e-01</right_val></_></_>
        <_>
          <_>
            <feature>
              <rects>
                <_>
                  18 12 16 2 -1.</_>
                <_>
                  18 12 8 1 2.</_>
                <_>
                  26 13 8 1 2.</_></rects>
              <tilted>0</tilted></feature>
            <threshold>-1.5135493595153093e-03</threshold>
            <left_val>8.0352848579432357e-01</left_val>
            <right_val>-1.7982447671888621e-01</right_val></_></_>
        <_>
          <_>
            <feature>
              <rects>
                <_>
                  30 45 18 4 -1.</_>
                <_>
                  30 45 9 2 2.</_>
                <_>
                  39 47 9 2 2.</_></rects>
              <tilted>0</tilted></feature>
            <threshold>1.5106674982234836e-04</threshold>
            <left_val>1.9709740558072858e-01</left_val>
            <right_val>-7.3856403836670681e-01</right_val></_></_>
        <_>
          <_>
            <feature>
              <rects>
                <_>
                  11 0 33 8 -1.</_>
                <_>
                  11 4 33 4 2.</_></rects>
              <tilted>0</tilted></feature>
            <threshold>-2.4034544825553894e-02</threshold>
            <left_val>6.1275218070031079e-01</left_val>
            <right_val>-2.2291712261837357e-01</right_val></_></_>
        <_>
          <_>
            <feature>
              <rects>
                <_>
                  42 18 4 10 -1.</_>
                <_>
                  42 18 2 5 2.</_>
                <_>
                  44 23 2 5 2.</_></rects>
              <tilted>0</tilted></feature>
            <threshold>9.4335046014748514e-05</threshold>
            <left_val>1.5852678237958240e-01</left_val>
            <right_val>-7.8828384225868875e-01</right_val></_></_>
        <_>
          <_>
            <feature>
              <rects>
                <_>
                  10 14 4 11 -1.</_>
                <_>
                  12 14 2 11 2.</_></rects>
              <tilted>0</tilted></feature>
            <threshold>1.2102370383217931e-03</threshold>
            <left_val>-1.6987167425070643e-01</left_val>
            <right_val>7.0186518782718743e-01</right_val></_></_>
        <_>
          <_>
            <feature>
              <rects>
                <_>
                  16 2 3 6 -1.</_>
                <_>
                  16 4 3 2 2.</_></rects>
              <tilted>0</tilted></feature>
            <threshold>-8.0386670306324959e-03</threshold>
            <left_val>-7.4862230751180658e-01</left_val>
            <right_val>1.6435078246195289e-01</right_val></_></_>
        <_>
          <_>
            <feature>
              <rects>
                <_>
                  0 35 2 14 -1.</_>
                <_>
                  1 35 1 14 2.</_></rects>
              <tilted>0</tilted></feature>
            <threshold>-1.6004932112991810e-03</threshold>
            <left_val>7.6433781851204208e-01</left_val>
            <right_val>-1.3232555902696660e-01</right_val></_></_>
        <_>
          <_>
            <feature>
              <rects>
                <_>
                  4 1 2 6 -1.</_>
                <_>
                  4 1 1 3 2.</_>
                <_>
                  5 4 1 3 2.</_></rects>
              <tilted>0</tilted></feature>
            <threshold>1.3230758668214548e-05</threshold>
            <left_val>1.3679685091118135e-01</left_val>
            <right_val>-7.9226693838190820e-01</right_val></_></_>
        <_>
          <_>
            <feature>
              <rects>
                <_>
                  6 43 2 2 -1.</_>
                <_>
                  7 43 1 2 2.</_></rects>
              <tilted>0</tilted></feature>
            <threshold>-1.8471865041647106e-04</threshold>
            <left_val>8.2057427720018794e-01</left_val>
            <right_val>-1.1369133277615338e-01</right_val></_></_>
        <_>
          <_>
            <feature>
              <rects>
                <_>
                  0 1 5 2 -1.</_>
                <_>
                  0 2 5 1 2.</_></rects>
              <tilted>0</tilted></feature>
            <threshold>9.2976457381155342e-05</threshold>
            <left_val>8.7080042243167372e-02</left_val>
            <right_val>-9.7899187437999002e-01</right_val></_></_>
        <_>
          <_>
            <feature>
              <rects>
                <_>
                  1 29 1 2 -1.</_>
                <_>
                  1 30 1 1 2.</_></rects>
              <tilted>0</tilted></feature>
            <threshold>6.4287887653335929e-06</threshold>
            <left_val>4.7813394758898148e-02</left_val>
            <right_val>-8.0623980982075993e-01</right_val></_></_>
        <_>
          <_>
            <feature>
              <rects>
                <_>
                  19 19 4 2 -1.</_>
                <_>
                  19 20 4 1 2.</_></rects>
              <tilted>0</tilted></feature>
            <threshold>-1.5488397912122309e-04</threshold>
            <left_val>7.3657782037105501e-01</left_val>
            <right_val>-1.0644867122060997e-01</right_val></_></_>
        <_>
          <_>
            <feature>
              <rects>
                <_>
                  17 46 24 2 -1.</_>
                <_>
                  17 46 12 1 2.</_>
                <_>
                  29 47 12 1 2.</_></rects>
              <tilted>0</tilted></feature>
            <threshold>6.0466036302386783e-06</threshold>
            <left_val>8.3964097092412440e-02</left_val>
            <right_val>-6.7667621851191673e-01</right_val></_></_>
        <_>
          <_>
            <feature>
              <rects>
                <_>
                  4 22 2 8 -1.</_>
                <_>
                  4 22 1 4 2.</_>
                <_>
                  5 26 1 4 2.</_></rects>
              <tilted>0</tilted></feature>
            <threshold>2.4662778014317155e-04</threshold>
            <left_val>-6.9307803611755245e-02</left_val>
            <right_val>8.0861062417878093e-01</right_val></_></_>
        <_>
          <_>
            <feature>
              <rects>
                <_>
                  11 2 9 4 -1.</_>
                <_>
                  14 2 3 4 2.</_></rects>
              <tilted>0</tilted></feature>
            <threshold>-1.7502194270491600e-02</threshold>
            <left_val>-8.6538735141251188e-01</left_val>
            <right_val>5.4708556407747584e-02</right_val></_></_>
        <_>
          <_>
            <feature>
              <rects>
                <_>
                  1 44 25 6 -1.</_>
                <_>
                  1 47 25 3 2.</_></rects>
              <tilted>0</tilted></feature>
            <threshold>5.6049227714538574e-03</threshold>
            <left_val>-5.8910537046147904e-02</left_val>
            <right_val>7.6871344379212192e-01</right_val></_></_>
        <_>
          <_>
            <feature>
              <rects>
                <_>
                  24 1 24 7 -1.</_>
                <_>
                  36 1 12 7 2.</_></rects>
              <tilted>0</tilted></feature>
            <threshold>1.1695344001054764e-02</threshold>
            <left_val>4.4630083336862122e-02</left_val>
            <right_val>-9.0321225091557955e-01</right_val></_></_>
        <_>
          <_>
            <feature>
              <rects>
                <_>
                  20 28 1 4 -1.</_>
                <_>
                  20 30 1 2 2.</_></rects>
              <tilted>0</tilted></feature>
            <threshold>-1.0727319750003517e-04</threshold>
            <left_val>8.6517467238264190e-01</left_val>
            <right_val>-4.6145271696740126e-02</right_val></_></_>
        <_>
          <_>
            <feature>
              <rects>
                <_>
                  48 10 2 16 -1.</_>
                <_>
                  48 10 1 8 2.</_>
                <_>
                  49 18 1 8 2.</_></rects>
              <tilted>0</tilted></feature>
            <threshold>6.3506508013233542e-05</threshold>
            <left_val>4.2864813086648156e-02</left_val>
            <right_val>-8.0736757497839950e-01</right_val></_></_>
        <_>
          <_>
            <feature>
              <rects>
                <_>
                  4 1 46 8 -1.</_>
                <_>
                  4 5 46 4 2.</_></rects>
              <tilted>0</tilted></feature>
            <threshold>-4.4540971517562866e-02</threshold>
            <left_val>8.9050282475785103e-01</left_val>
            <right_val>-3.5112991787021673e-02</right_val></_></_>
        <_>
          <_>
            <feature>
              <rects>
                <_>
                  40 7 2 20 -1.</_>
                <_>
                  40 7 1 10 2.</_>
                <_>
                  41 17 1 10 2.</_></rects>
              <tilted>0</tilted></feature>
            <threshold>-1.6737298574298620e-04</threshold>
            <left_val>-8.9182412780060538e-01</left_val>
            <right_val>3.0732249929063517e-02</right_val></_></_>
        <_>
          <_>
            <feature>
              <rects>
                <_>
                  23 20 2 4 -1.</_>
                <_>
                  23 22 2 2 2.</_></rects>
              <tilted>0</tilted></feature>
            <threshold>-7.0442666765302420e-04</threshold>
            <left_val>9.1768488712432261e-01</left_val>
            <right_val>-2.4838402694363094e-02</right_val></_></_>
        <_>
          <_>
            <feature>
              <rects>
                <_>
                  5 0 10 1 -1.</_>
                <_>
                  10 0 5 1 2.</_></rects>
              <tilted>0</tilted></feature>
            <threshold>8.9395325630903244e-05</threshold>
            <left_val>2.7977343974262655e-02</left_val>
            <right_val>-8.2123205578578162e-01</right_val></_></_>
        <_>
          <_>
            <feature>
              <rects>
                <_>
                  7 31 13 2 -1.</_>
                <_>
                  7 32 13 1 2.</_></rects>
              <tilted>0</tilted></feature>
            <threshold>2.2869375243317336e-04</threshold>
            <left_val>-1.8163246954878198e-02</left_val>
            <right_val>9.5980000887474570e-01</right_val></_></_>
        <_>
          <_>
            <feature>
              <rects>
                <_>
                  6 33 4 4 -1.</_>
                <_>
                  6 35 4 2 2.</_></rects>
              <tilted>0</tilted></feature>
            <threshold>6.1055186961311847e-05</threshold>
            <left_val>8.8701841009986362e-03</left_val>
            <right_val>-9.1237055985076110e-01</right_val></_></_>
        <_>
          <_>
            <feature>
              <rects>
                <_>
                  18 9 1 4 -1.</_>
                <_>
                  18 11 1 2 2.</_></rects>
              <tilted>0</tilted></feature>
            <threshold>-7.6485266617964953e-06</threshold>
            <left_val>8.3619357639641023e-01</left_val>
            <right_val>-1.3473780403975491e-02</right_val></_></_>
        <_>
          <_>
            <feature>
              <rects>
                <_>
                  25 5 8 16 -1.</_>
                <_>
                  25 5 4 8 2.</_>
                <_>
                  29 13 4 8 2.</_></rects>
              <tilted>0</tilted></feature>
            <threshold>1.9441431504674256e-04</threshold>
            <left_val>1.1540226471596030e-02</left_val>
            <right_val>-8.8530653539719584e-01</right_val></_></_>
        <_>
          <_>
            <feature>
              <rects>
                <_>
                  27 12 6 20 -1.</_>
                <_>
                  27 12 3 10 2.</_>
                <_>
                  30 22 3 10 2.</_></rects>
              <tilted>0</tilted></feature>
            <threshold>-5.9332331875339150e-04</threshold>
            <left_val>1.</left_val>
            <right_val>-5.8508952837333962e-03</right_val></_></_>
        <_>
          <_>
            <feature>
              <rects>
                <_>
                  23 14 14 14 -1.</_>
                <_>
                  23 14 7 7 2.</_>
                <_>
                  30 21 7 7 2.</_></rects>
              <tilted>0</tilted></feature>
            <threshold>-1.8584675854071975e-04</threshold>
            <left_val>-9.5089817941111010e-01</left_val>
            <right_val>6.6293151717290288e-03</right_val></_></_>
        <_>
          <_>
            <feature>
              <rects>
                <_>
                  30 10 11 8 -1.</_>
                <_>
                  30 14 11 4 2.</_></rects>
              <tilted>0</tilted></feature>
            <threshold>2.3497180081903934e-03</threshold>
            <left_val>-4.5479540039580022e-03</left_val>
            <right_val>1.</right_val></_></_>
        <_>
          <_>
            <feature>
              <rects>
                <_>
                  33 11 8 6 -1.</_>
                <_>
                  33 14 8 3 2.</_></rects>
              <tilted>0</tilted></feature>
            <threshold>1.7641513841226697e-04</threshold>
            <left_val>4.7538815804089706e-03</left_val>
            <right_val>-9.7214974855778136e-01</right_val></_></_>
        <_>
          <_>
            <feature>
              <rects>
                <_>
                  4 31 10 6 -1.</_>
                <_>
                  4 31 5 3 2.</_>
                <_>
                  9 34 5 3 2.</_></rects>
              <tilted>0</tilted></feature>
            <threshold>3.3065334719140083e-05</threshold>
            <left_val>-3.2250693923230262e-03</left_val>
            <right_val>1.</right_val></_></_>
        <_>
          <_>
            <feature>
              <rects>
                <_>
                  20 7 1 12 -1.</_>
                <_>
                  20 11 1 4 2.</_></rects>
              <tilted>0</tilted></feature>
            <threshold>-1.4742660277988762e-04</threshold>
            <left_val>-1.</left_val>
            <right_val>5.2966862008129436e-03</right_val></_></_>
        <_>
          <_>
            <feature>
              <rects>
                <_>
                  0 0 3 1 -1.</_>
                <_>
                  1 0 1 1 2.</_></rects>
              <tilted>0</tilted></feature>
            <threshold>-1.1108046601293609e-04</threshold>
            <left_val>1.</left_val>
            <right_val>-1.7802981565368334e-03</right_val></_></_>
        <_>
          <_>
            <feature>
              <rects>
                <_>
                  0 0 3 1 -1.</_>
                <_>
                  1 0 1 1 2.</_></rects>
              <tilted>0</tilted></feature>
            <threshold>-2.4609445245005190e-04</threshold>
            <left_val>-1.</left_val>
            <right_val>-1.8808746153769755e-09</right_val></_></_>
        <_>
          <_>
            <feature>
              <rects>
                <_>
                  0 0 3 1 -1.</_>
                <_>
                  1 0 1 1 2.</_></rects>
              <tilted>0</tilted></feature>
            <threshold>-3.5064818803220987e-04</threshold>
            <left_val>1.</left_val>
            <right_val>1.1195500352789398e-14</right_val></_></_>
        <_>
          <_>
            <feature>
              <rects>
                <_>
                  0 0 3 1 -1.</_>
                <_>
                  1 0 1 1 2.</_></rects>
              <tilted>0</tilted></feature>
            <threshold>-3.9206742076203227e-04</threshold>
            <left_val>-1.</left_val>
            <right_val>5.9713151647638302e-04</right_val></_></_>
        <_>
          <_>
            <feature>
              <rects>
                <_>
                  0 0 3 1 -1.</_>
                <_>
                  1 0 1 1 2.</_></rects>
              <tilted>0</tilted></feature>
            <threshold>-3.5064818803220987e-04</threshold>
            <left_val>9.9999999999999989e-01</left_val>
            <right_val>-5.9713144550262685e-04</right_val></_></_>
        <_>
          <_>
            <feature>
              <rects>
                <_>
                  0 0 3 1 -1.</_>
                <_>
                  1 0 1 1 2.</_></rects>
              <tilted>0</tilted></feature>
            <threshold>-3.3448642352595925e-04</threshold>
            <left_val>-1.</left_val>
            <right_val>5.9713144550264973e-04</right_val></_></_>
        <_>
          <_>
            <feature>
              <rects>
                <_>
                  0 0 3 1 -1.</_>
                <_>
                  1 0 1 1 2.</_></rects>
              <tilted>0</tilted></feature>
            <threshold>-3.5064818803220987e-04</threshold>
            <left_val>1.</left_val>
            <right_val>-5.9713144550121782e-04</right_val></_></_>
        <_>
          <_>
            <feature>
              <rects>
                <_>
                  0 0 3 1 -1.</_>
                <_>
                  1 0 1 1 2.</_></rects>
              <tilted>0</tilted></feature>
            <threshold>-3.3448642352595925e-04</threshold>
            <left_val>-1.</left_val>
            <right_val>5.9713144550092032e-04</right_val></_></_>
        <_>
          <_>
            <feature>
              <rects>
                <_>
                  0 0 3 1 -1.</_>
                <_>
                  1 0 1 1 2.</_></rects>
              <tilted>0</tilted></feature>
            <threshold>-3.5064818803220987e-04</threshold>
            <left_val>1.</left_val>
            <right_val>-5.9713144550664165e-04</right_val></_></_>
        <_>
          <_>
            <feature>
              <rects>
                <_>
                  0 0 3 1 -1.</_>
                <_>
                  1 0 1 1 2.</_></rects>
              <tilted>0</tilted></feature>
            <threshold>-3.3448642352595925e-04</threshold>
            <left_val>-1.</left_val>
            <right_val>5.9713144550715719e-04</right_val></_></_>
        <_>
          <_>
            <feature>
              <rects>
                <_>
                  0 0 3 1 -1.</_>
                <_>
                  1 0 1 1 2.</_></rects>
              <tilted>0</tilted></feature>
            <threshold>-3.5064818803220987e-04</threshold>
            <left_val>1.</left_val>
            <right_val>-5.9713144551181059e-04</right_val></_></_>
        <_>
          <_>
            <feature>
              <rects>
                <_>
                  0 0 3 1 -1.</_>
                <_>
                  1 0 1 1 2.</_></rects>
              <tilted>0</tilted></feature>
            <threshold>-3.3448642352595925e-04</threshold>
            <left_val>-1.</left_val>
            <right_val>5.9713144551173567e-04</right_val></_></_>
        <_>
          <_>
            <feature>
              <rects>
                <_>
                  0 0 3 1 -1.</_>
                <_>
                  1 0 1 1 2.</_></rects>
              <tilted>0</tilted></feature>
            <threshold>-3.5064818803220987e-04</threshold>
            <left_val>9.9999999999999989e-01</left_val>
            <right_val>-5.9713144551399981e-04</right_val></_></_>
        <_>
          <_>
            <feature>
              <rects>
                <_>
                  0 0 3 1 -1.</_>
                <_>
                  1 0 1 1 2.</_></rects>
              <tilted>0</tilted></feature>
            <threshold>-3.3448642352595925e-04</threshold>
            <left_val>-1.</left_val>
            <right_val>5.9713144550409432e-04</right_val></_></_>
        <_>
          <_>
            <feature>
              <rects>
                <_>
                  0 0 3 1 -1.</_>
                <_>
                  1 0 1 1 2.</_></rects>
              <tilted>0</tilted></feature>
            <threshold>-3.5064818803220987e-04</threshold>
            <left_val>1.</left_val>
            <right_val>-5.9713144549147497e-04</right_val></_></_>
        <_>
          <_>
            <feature>
              <rects>
                <_>
                  0 0 3 1 -1.</_>
                <_>
                  1 0 1 1 2.</_></rects>
              <tilted>0</tilted></feature>
            <threshold>-3.3448642352595925e-04</threshold>
            <left_val>-1.</left_val>
            <right_val>5.9713144549587986e-04</right_val></_></_>
        <_>
          <_>
            <feature>
              <rects>
                <_>
                  0 0 3 1 -1.</_>
                <_>
                  1 0 1 1 2.</_></rects>
              <tilted>0</tilted></feature>
            <threshold>-3.5064818803220987e-04</threshold>
            <left_val>1.</left_val>
            <right_val>-5.9713144550809611e-04</right_val></_></_>
        <_>
          <_>
            <feature>
              <rects>
                <_>
                  0 0 3 1 -1.</_>
                <_>
                  1 0 1 1 2.</_></rects>
              <tilted>0</tilted></feature>
            <threshold>-3.3448642352595925e-04</threshold>
            <left_val>-1.</left_val>
            <right_val>5.9713144550670031e-04</right_val></_></_>
        <_>
          <_>
            <feature>
              <rects>
                <_>
                  0 0 3 1 -1.</_>
                <_>
                  1 0 1 1 2.</_></rects>
              <tilted>0</tilted></feature>
            <threshold>-3.5064818803220987e-04</threshold>
            <left_val>1.</left_val>
            <right_val>-5.9713144550772900e-04</right_val></_></_>
        <_>
          <_>
            <feature>
              <rects>
                <_>
                  0 0 3 1 -1.</_>
                <_>
                  1 0 1 1 2.</_></rects>
              <tilted>0</tilted></feature>
            <threshold>-3.3448642352595925e-04</threshold>
            <left_val>-1.</left_val>
            <right_val>5.9713144550646797e-04</right_val></_></_>
        <_>
          <_>
            <feature>
              <rects>
                <_>
                  0 0 3 1 -1.</_>
                <_>
                  1 0 1 1 2.</_></rects>
              <tilted>0</tilted></feature>
            <threshold>-3.5064818803220987e-04</threshold>
            <left_val>9.9999999999999989e-01</left_val>
            <right_val>-5.9713144550253209e-04</right_val></_></_>
        <_>
          <_>
            <feature>
              <rects>
                <_>
                  0 0 3 1 -1.</_>
                <_>
                  1 0 1 1 2.</_></rects>
              <tilted>0</tilted></feature>
            <threshold>-3.3448642352595925e-04</threshold>
            <left_val>-9.9999999999999989e-01</left_val>
            <right_val>5.9713144551086820e-04</right_val></_></_>
        <_>
          <_>
            <feature>
              <rects>
                <_>
                  0 0 3 1 -1.</_>
                <_>
                  1 0 1 1 2.</_></rects>
              <tilted>0</tilted></feature>
            <threshold>-3.5064818803220987e-04</threshold>
            <left_val>9.9999999999999989e-01</left_val>
            <right_val>-5.9713144551368539e-04</right_val></_></_>
        <_>
          <_>
            <feature>
              <rects>
                <_>
                  0 0 3 1 -1.</_>
                <_>
                  1 0 1 1 2.</_></rects>
              <tilted>0</tilted></feature>
            <threshold>-3.3448642352595925e-04</threshold>
            <left_val>-1.</left_val>
            <right_val>5.9713144550685145e-04</right_val></_></_>
        <_>
          <_>
            <feature>
              <rects>
                <_>
                  0 0 3 1 -1.</_>
                <_>
                  1 0 1 1 2.</_></rects>
              <tilted>0</tilted></feature>
            <threshold>-3.5064818803220987e-04</threshold>
            <left_val>1.</left_val>
            <right_val>-5.9713144549999409e-04</right_val></_></_>
        <_>
          <_>
            <feature>
              <rects>
                <_>
                  0 0 3 1 -1.</_>
                <_>
                  1 0 1 1 2.</_></rects>
              <tilted>0</tilted></feature>
            <threshold>-3.3448642352595925e-04</threshold>
            <left_val>-1.</left_val>
            <right_val>5.9713144549872427e-04</right_val></_></_>
        <_>
          <_>
            <feature>
              <rects>
                <_>
                  0 0 3 1 -1.</_>
                <_>
                  1 0 1 1 2.</_></rects>
              <tilted>0</tilted></feature>
            <threshold>-3.5064818803220987e-04</threshold>
            <left_val>9.9999999999999989e-01</left_val>
            <right_val>-5.9713144550044295e-04</right_val></_></_>
        <_>
          <_>
            <feature>
              <rects>
                <_>
                  0 0 3 1 -1.</_>
                <_>
                  1 0 1 1 2.</_></rects>
              <tilted>0</tilted></feature>
            <threshold>-3.3448642352595925e-04</threshold>
            <left_val>-1.</left_val>
            <right_val>5.9713144550826611e-04</right_val></_></_>
        <_>
          <_>
            <feature>
              <rects>
                <_>
                  0 0 3 1 -1.</_>
                <_>
                  1 0 1 1 2.</_></rects>
              <tilted>0</tilted></feature>
            <threshold>-3.5064818803220987e-04</threshold>
            <left_val>1.</left_val>
            <right_val>-5.9713144551543649e-04</right_val></_></_>
        <_>
          <_>
            <feature>
              <rects>
                <_>
                  0 0 3 1 -1.</_>
                <_>
                  1 0 1 1 2.</_></rects>
              <tilted>0</tilted></feature>
            <threshold>-3.3448642352595925e-04</threshold>
            <left_val>-1.</left_val>
            <right_val>5.9713144551738729e-04</right_val></_></_>
        <_>
          <_>
            <feature>
              <rects>
                <_>
                  0 0 3 1 -1.</_>
                <_>
                  1 0 1 1 2.</_></rects>
              <tilted>0</tilted></feature>
            <threshold>-3.5064818803220987e-04</threshold>
            <left_val>1.</left_val>
            <right_val>-5.9713144551132487e-04</right_val></_></_>
        <_>
          <_>
            <feature>
              <rects>
                <_>
                  0 0 3 1 -1.</_>
                <_>
                  1 0 1 1 2.</_></rects>
              <tilted>0</tilted></feature>
            <threshold>-3.3448642352595925e-04</threshold>
            <left_val>-1.</left_val>
            <right_val>5.9713144550567400e-04</right_val></_></_>
        <_>
          <_>
            <feature>
              <rects>
                <_>
                  0 0 3 1 -1.</_>
                <_>
                  1 0 1 1 2.</_></rects>
              <tilted>0</tilted></feature>
            <threshold>-3.5064818803220987e-04</threshold>
            <left_val>9.9999999999999989e-01</left_val>
            <right_val>-5.9713144550849553e-04</right_val></_></_>
        <_>
          <_>
            <feature>
              <rects>
                <_>
                  0 0 3 1 -1.</_>
                <_>
                  1 0 1 1 2.</_></rects>
              <tilted>0</tilted></feature>
            <threshold>-3.3448642352595925e-04</threshold>
            <left_val>-1.</left_val>
            <right_val>5.9713144550181262e-04</right_val></_></_>
        <_>
          <_>
            <feature>
              <rects>
                <_>
                  0 0 3 1 -1.</_>
                <_>
                  1 0 1 1 2.</_></rects>
              <tilted>0</tilted></feature>
            <threshold>-3.5064818803220987e-04</threshold>
            <left_val>1.</left_val>
            <right_val>-5.9713144550069708e-04</right_val></_></_>
        <_>
          <_>
            <feature>
              <rects>
                <_>
                  0 0 3 1 -1.</_>
                <_>
                  1 0 1 1 2.</_></rects>
              <tilted>0</tilted></feature>
            <threshold>-3.3448642352595925e-04</threshold>
            <left_val>-1.</left_val>
            <right_val>5.9713144550501698e-04</right_val></_></_>
        <_>
          <_>
            <feature>
              <rects>
                <_>
                  0 0 3 1 -1.</_>
                <_>
                  1 0 1 1 2.</_></rects>
              <tilted>0</tilted></feature>
            <threshold>-3.5064818803220987e-04</threshold>
            <left_val>1.</left_val>
            <right_val>-5.9713144549810009e-04</right_val></_></_>
        <_>
          <_>
            <feature>
              <rects>
                <_>
                  0 0 3 1 -1.</_>
                <_>
                  1 0 1 1 2.</_></rects>
              <tilted>0</tilted></feature>
            <threshold>-3.3448642352595925e-04</threshold>
            <left_val>-9.9999999999999989e-01</left_val>
            <right_val>5.9713144550467502e-04</right_val></_></_>
        <_>
          <_>
            <feature>
              <rects>
                <_>
                  0 0 3 1 -1.</_>
                <_>
                  1 0 1 1 2.</_></rects>
              <tilted>0</tilted></feature>
            <threshold>-3.5064818803220987e-04</threshold>
            <left_val>1.</left_val>
            <right_val>-5.9713144550556103e-04</right_val></_></_>
        <_>
          <_>
            <feature>
              <rects>
                <_>
                  0 0 3 1 -1.</_>
                <_>
                  1 0 1 1 2.</_></rects>
              <tilted>0</tilted></feature>
            <threshold>-3.3448642352595925e-04</threshold>
            <left_val>-1.</left_val>
            <right_val>5.9713144549683082e-04</right_val></_></_>
        <_>
          <_>
            <feature>
              <rects>
                <_>
                  0 0 3 1 -1.</_>
                <_>
                  1 0 1 1 2.</_></rects>
              <tilted>0</tilted></feature>
            <threshold>-3.5064818803220987e-04</threshold>
            <left_val>9.9999999999999989e-01</left_val>
            <right_val>-5.9713144549594318e-04</right_val></_></_>
        <_>
          <_>
            <feature>
              <rects>
                <_>
                  0 0 3 1 -1.</_>
                <_>
                  1 0 1 1 2.</_></rects>
              <tilted>0</tilted></feature>
            <threshold>-3.3448642352595925e-04</threshold>
            <left_val>-1.</left_val>
            <right_val>5.9713144550381080e-04</right_val></_></_>
        <_>
          <_>
            <feature>
              <rects>
                <_>
                  0 0 3 1 -1.</_>
                <_>
                  1 0 1 1 2.</_></rects>
              <tilted>0</tilted></feature>
            <threshold>-3.5064818803220987e-04</threshold>
            <left_val>1.</left_val>
            <right_val>-5.9713144551428506e-04</right_val></_></_>
        <_>
          <_>
            <feature>
              <rects>
                <_>
                  0 0 3 1 -1.</_>
                <_>
                  1 0 1 1 2.</_></rects>
              <tilted>0</tilted></feature>
            <threshold>-3.3448642352595925e-04</threshold>
            <left_val>-1.</left_val>
            <right_val>5.9713144550925686e-04</right_val></_></_>
        <_>
          <_>
            <feature>
              <rects>
                <_>
                  0 0 3 1 -1.</_>
                <_>
                  1 0 1 1 2.</_></rects>
              <tilted>0</tilted></feature>
            <threshold>-3.5064818803220987e-04</threshold>
            <left_val>9.9999999999999989e-01</left_val>
            <right_val>-5.9713144550605326e-04</right_val></_></_>
        <_>
          <_>
            <feature>
              <rects>
                <_>
                  0 0 3 1 -1.</_>
                <_>
                  1 0 1 1 2.</_></rects>
              <tilted>0</tilted></feature>
            <threshold>-3.3448642352595925e-04</threshold>
            <left_val>-1.</left_val>
            <right_val>5.9713144550906734e-04</right_val></_></_>
        <_>
          <_>
            <feature>
              <rects>
                <_>
                  0 0 3 1 -1.</_>
                <_>
                  1 0 1 1 2.</_></rects>
              <tilted>0</tilted></feature>
            <threshold>-3.5064818803220987e-04</threshold>
            <left_val>1.</left_val>
            <right_val>-5.9713144550909997e-04</right_val></_></_>
        <_>
          <_>
            <feature>
              <rects>
                <_>
                  0 0 3 1 -1.</_>
                <_>
                  1 0 1 1 2.</_></rects>
              <tilted>0</tilted></feature>
            <threshold>-3.3448642352595925e-04</threshold>
            <left_val>-1.</left_val>
            <right_val>5.9713144551028045e-04</right_val></_></_>
        <_>
          <_>
            <feature>
              <rects>
                <_>
                  0 0 3 1 -1.</_>
                <_>
                  1 0 1 1 2.</_></rects>
              <tilted>0</tilted></feature>
            <threshold>-3.5064818803220987e-04</threshold>
            <left_val>1.</left_val>
            <right_val>-5.9713144551337596e-04</right_val></_></_>
        <_>
          <_>
            <feature>
              <rects>
                <_>
                  0 0 3 1 -1.</_>
                <_>
                  1 0 1 1 2.</_></rects>
              <tilted>0</tilted></feature>
            <threshold>-3.3448642352595925e-04</threshold>
            <left_val>-1.</left_val>
            <right_val>5.9713144551564248e-04</right_val></_></_>
        <_>
          <_>
            <feature>
              <rects>
                <_>
                  0 0 3 1 -1.</_>
                <_>
                  1 0 1 1 2.</_></rects>
              <tilted>0</tilted></feature>
            <threshold>-3.5064818803220987e-04</threshold>
            <left_val>1.</left_val>
            <right_val>-5.9713144551472633e-04</right_val></_></_>
        <_>
          <_>
            <feature>
              <rects>
                <_>
                  0 0 3 1 -1.</_>
                <_>
                  1 0 1 1 2.</_></rects>
              <tilted>0</tilted></feature>
            <threshold>-3.3448642352595925e-04</threshold>
            <left_val>-9.9999999999999989e-01</left_val>
            <right_val>5.9713144551486121e-04</right_val></_></_>
        <_>
          <_>
            <feature>
              <rects>
                <_>
                  0 0 3 1 -1.</_>
                <_>
                  1 0 1 1 2.</_></rects>
              <tilted>0</tilted></feature>
            <threshold>-3.5064818803220987e-04</threshold>
            <left_val>1.</left_val>
            <right_val>-5.9713144551228341e-04</right_val></_></_>
        <_>
          <_>
            <feature>
              <rects>
                <_>
                  0 0 3 1 -1.</_>
                <_>
                  1 0 1 1 2.</_></rects>
              <tilted>0</tilted></feature>
            <threshold>-3.3448642352595925e-04</threshold>
            <left_val>-1.</left_val>
            <right_val>5.9713144550146155e-04</right_val></_></_>
        <_>
          <_>
            <feature>
              <rects>
                <_>
                  0 0 3 1 -1.</_>
                <_>
                  1 0 1 1 2.</_></rects>
              <tilted>0</tilted></feature>
            <threshold>-3.5064818803220987e-04</threshold>
            <left_val>1.</left_val>
            <right_val>-5.9713144550102354e-04</right_val></_></_>
        <_>
          <_>
            <feature>
              <rects>
                <_>
                  0 0 3 1 -1.</_>
                <_>
                  1 0 1 1 2.</_></rects>
              <tilted>0</tilted></feature>
            <threshold>-3.3448642352595925e-04</threshold>
            <left_val>-1.</left_val>
            <right_val>5.9713144550146578e-04</right_val></_></_>
        <_>
          <_>
            <feature>
              <rects>
                <_>
                  0 0 3 1 -1.</_>
                <_>
                  1 0 1 1 2.</_></rects>
              <tilted>0</tilted></feature>
            <threshold>-3.5064818803220987e-04</threshold>
            <left_val>1.</left_val>
            <right_val>-5.9713144550509276e-04</right_val></_></_></trees>
      <stage_threshold>-3.1558673381805420e+00</stage_threshold>
      <parent>3</parent>
      <next>-1</next></_>
    <_>
      <trees>
        <_>
          <_>
            <feature>
              <rects>
                <_>
                  2 3 26 38 -1.</_>
                <_>
                  2 3 13 19 2.</_>
                <_>
                  15 22 13 19 2.</_></rects>
              <tilted>0</tilted></feature>
            <threshold>1.2891550362110138e-01</threshold>
            <left_val>-9.5413758723828535e-01</left_val>
            <right_val>5.0000000000000000e-01</right_val></_></_>
        <_>
          <_>
            <feature>
              <rects>
                <_>
                  0 28 3 18 -1.</_>
                <_>
                  0 34 3 6 2.</_></rects>
              <tilted>0</tilted></feature>
            <threshold>-9.5984721556305885e-03</threshold>
            <left_val>2.5495444294706465e-01</left_val>
            <right_val>-9.8212939731437598e-01</right_val></_></_>
        <_>
          <_>
            <feature>
              <rects>
                <_>
                  25 7 4 6 -1.</_>
                <_>
                  25 7 2 3 2.</_>
                <_>
                  27 10 2 3 2.</_></rects>
              <tilted>0</tilted></feature>
            <threshold>-5.1570987125160173e-06</threshold>
            <left_val>3.6837095171678602e-01</left_val>
            <right_val>-7.9310981331124164e-01</right_val></_></_>
        <_>
          <_>
            <feature>
              <rects>
                <_>
                  13 26 3 8 -1.</_>
                <_>
                  13 30 3 4 2.</_></rects>
              <tilted>0</tilted></feature>
            <threshold>2.1140696480870247e-04</threshold>
            <left_val>-5.6998951351347971e-01</left_val>
            <right_val>4.5890110294017228e-01</right_val></_></_>
        <_>
          <_>
            <feature>
              <rects>
                <_>
                  10 4 4 45 -1.</_>
                <_>
                  12 4 2 45 2.</_></rects>
              <tilted>0</tilted></feature>
            <threshold>4.3910816311836243e-03</threshold>
            <left_val>-2.3893793817231526e-01</left_val>
            <right_val>8.0524698677481366e-01</right_val></_></_>
        <_>
          <_>
            <feature>
              <rects>
                <_>
                  1 0 6 2 -1.</_>
                <_>
                  4 0 3 2 2.</_></rects>
              <tilted>0</tilted></feature>
            <threshold>-8.1752543337643147e-05</threshold>
            <left_val>-8.5147550967976449e-01</left_val>
            <right_val>2.5592912046369554e-01</right_val></_></_>
        <_>
          <_>
            <feature>
              <rects>
                <_>
                  21 12 4 19 -1.</_>
                <_>
                  23 12 2 19 2.</_></rects>
              <tilted>0</tilted></feature>
            <threshold>2.8231989126652479e-03</threshold>
            <left_val>-2.3825311066412733e-01</left_val>
            <right_val>6.5792543892164912e-01</right_val></_></_>
        <_>
          <_>
            <feature>
              <rects>
                <_>
                  0 21 2 2 -1.</_>
                <_>
                  0 21 1 1 2.</_>
                <_>
                  1 22 1 1 2.</_></rects>
              <tilted>0</tilted></feature>
            <threshold>-1.4234126865630969e-05</threshold>
            <left_val>-8.2056008060777241e-01</left_val>
            <right_val>1.8467679486865743e-01</right_val></_></_>
        <_>
          <_>
            <feature>
              <rects>
                <_>
                  13 22 14 4 -1.</_>
                <_>
                  13 24 14 2 2.</_></rects>
              <tilted>0</tilted></feature>
            <threshold>3.3793342299759388e-03</threshold>
            <left_val>-1.6420366052307939e-01</left_val>
            <right_val>7.7698858304602514e-01</right_val></_></_>
        <_>
          <_>
            <feature>
              <rects>
                <_>
                  10 49 6 1 -1.</_>
                <_>
                  13 49 3 1 2.</_></rects>
              <tilted>0</tilted></feature>
            <threshold>-1.7229374861926772e-05</threshold>
            <left_val>-8.2267561966739566e-01</left_val>
            <right_val>1.5975907635891970e-01</right_val></_></_>
        <_>
          <_>
            <feature>
              <rects>
                <_>
                  16 6 11 2 -1.</_>
                <_>
                  16 7 11 1 2.</_></rects>
              <tilted>0</tilted></feature>
            <threshold>9.7668648231774569e-04</threshold>
            <left_val>-1.5107733721552932e-01</left_val>
            <right_val>8.5429163027319799e-01</right_val></_></_>
        <_>
          <_>
            <feature>
              <rects>
                <_>
                  1 18 1 14 -1.</_>
                <_>
                  1 25 1 7 2.</_></rects>
              <tilted>0</tilted></feature>
            <threshold>6.0666759964078665e-05</threshold>
            <left_val>1.4714937231345027e-01</left_val>
            <right_val>-8.0823056570968255e-01</right_val></_></_>
        <_>
          <_>
            <feature>
              <rects>
                <_>
                  3 24 8 1 -1.</_>
                <_>
                  7 24 4 1 2.</_></rects>
              <tilted>0</tilted></feature>
            <threshold>1.1029669549316168e-03</threshold>
            <left_val>-1.1209018759200572e-01</left_val>
            <right_val>8.7574618315971997e-01</right_val></_></_>
        <_>
          <_>
            <feature>
              <rects>
                <_>
                  36 1 10 8 -1.</_>
                <_>
                  41 1 5 8 2.</_></rects>
              <tilted>0</tilted></feature>
            <threshold>1.4634986873716116e-03</threshold>
            <left_val>1.1263508749383577e-01</left_val>
            <right_val>-7.7189925004990390e-01</right_val></_></_>
        <_>
          <_>
            <feature>
              <rects>
                <_>
                  22 10 8 30 -1.</_>
                <_>
                  22 25 8 15 2.</_></rects>
              <tilted>0</tilted></feature>
            <threshold>6.5779857337474823e-02</threshold>
            <left_val>-8.6900157786713506e-02</left_val>
            <right_val>9.2838433923162988e-01</right_val></_></_>
        <_>
          <_>
            <feature>
              <rects>
                <_>
                  0 9 5 4 -1.</_>
                <_>
                  0 11 5 2 2.</_></rects>
              <tilted>0</tilted></feature>
            <threshold>2.0759314065799117e-04</threshold>
            <left_val>7.4956076145027320e-02</left_val>
            <right_val>-9.5514973710256013e-01</right_val></_></_>
        <_>
          <_>
            <feature>
              <rects>
                <_>
                  35 10 2 2 -1.</_>
                <_>
                  35 11 2 1 2.</_></rects>
              <tilted>0</tilted></feature>
            <threshold>3.3664135844446719e-04</threshold>
            <left_val>-7.6689360934382320e-02</left_val>
            <right_val>8.4776965835912921e-01</right_val></_></_>
        <_>
          <_>
            <feature>
              <rects>
                <_>
                  25 2 14 8 -1.</_>
                <_>
                  32 2 7 8 2.</_></rects>
              <tilted>0</tilted></feature>
            <threshold>-7.5228419154882431e-03</threshold>
            <left_val>-9.1765202313068872e-01</left_val>
            <right_val>7.2339428163797348e-02</right_val></_></_>
        <_>
          <_>
            <feature>
              <rects>
                <_>
                  0 17 32 2 -1.</_>
                <_>
                  0 17 16 1 2.</_>
                <_>
                  16 18 16 1 2.</_></rects>
              <tilted>0</tilted></feature>
            <threshold>-1.3926476240158081e-03</threshold>
            <left_val>9.4306798140327908e-01</left_val>
            <right_val>-5.6983169709085797e-02</right_val></_></_>
        <_>
          <_>
            <feature>
              <rects>
                <_>
                  6 6 2 5 -1.</_>
                <_>
                  7 6 1 5 2.</_></rects>
              <tilted>0</tilted></feature>
            <threshold>-1.3047692482359707e-04</threshold>
            <left_val>-8.3864504232522608e-01</left_val>
            <right_val>5.6639065539230170e-02</right_val></_></_>
        <_>
          <_>
            <feature>
              <rects>
                <_>
                  19 6 8 2 -1.</_>
                <_>
                  19 7 8 1 2.</_></rects>
              <tilted>0</tilted></feature>
            <threshold>8.1187998875975609e-04</threshold>
            <left_val>-4.7170769123785102e-02</left_val>
            <right_val>9.2043975369938169e-01</right_val></_></_>
        <_>
          <_>
            <feature>
              <rects>
                <_>
                  42 16 6 4 -1.</_>
                <_>
                  42 16 3 2 2.</_>
                <_>
                  45 18 3 2 2.</_></rects>
              <tilted>0</tilted></feature>
            <threshold>1.0681499588827137e-05</threshold>
            <left_val>4.8828395981065760e-02</left_val>
            <right_val>-7.4627813305030555e-01</right_val></_></_>
        <_>
          <_>
            <feature>
              <rects>
                <_>
                  4 44 4 4 -1.</_>
                <_>
                  4 44 2 2 2.</_>
                <_>
                  6 46 2 2 2.</_></rects>
              <tilted>0</tilted></feature>
            <threshold>-5.3520183428190649e-05</threshold>
            <left_val>8.7528957849293054e-01</left_val>
            <right_val>-4.0260508324957305e-02</right_val></_></_>
        <_>
          <_>
            <feature>
              <rects>
                <_>
                  16 23 12 12 -1.</_>
                <_>
                  16 29 12 6 2.</_></rects>
              <tilted>0</tilted></feature>
            <threshold>-7.1330017817672342e-05</threshold>
            <left_val>-1.</left_val>
            <right_val>2.3476939719874655e-02</right_val></_></_>
        <_>
          <_>
            <feature>
              <rects>
                <_>
                  6 21 12 27 -1.</_>
                <_>
                  12 21 6 27 2.</_></rects>
              <tilted>0</tilted></feature>
            <threshold>4.3224949389696121e-02</threshold>
            <left_val>-2.5714003534452991e-02</left_val>
            <right_val>9.5728147924069795e-01</right_val></_></_>
        <_>
          <_>
            <feature>
              <rects>
                <_>
                  24 13 18 1 -1.</_>
                <_>
                  33 13 9 1 2.</_></rects>
              <tilted>0</tilted></feature>
            <threshold>1.8768227164400741e-05</threshold>
            <left_val>2.6489110510715713e-02</left_val>
            <right_val>-7.5768706187631607e-01</right_val></_></_>
        <_>
          <_>
            <feature>
              <rects>
                <_>
                  43 26 4 22 -1.</_>
                <_>
                  43 26 2 11 2.</_>
                <_>
                  45 37 2 11 2.</_></rects>
              <tilted>0</tilted></feature>
            <threshold>1.0750258297775872e-05</threshold>
            <left_val>-1.6564645271511039e-02</left_val>
            <right_val>9.6009014513407931e-01</right_val></_></_>
        <_>
          <_>
            <feature>
              <rects>
                <_>
                  23 7 15 1 -1.</_>
                <_>
                  28 7 5 1 2.</_></rects>
              <tilted>0</tilted></feature>
            <threshold>-5.4525583982467651e-03</threshold>
            <left_val>-9.0052364301482368e-01</left_val>
            <right_val>8.1644421765178932e-03</right_val></_></_>
        <_>
          <_>
            <feature>
              <rects>
                <_>
                  20 6 3 3 -1.</_>
                <_>
                  21 6 1 3 2.</_></rects>
              <tilted>0</tilted></feature>
            <threshold>-2.3354305885732174e-03</threshold>
            <left_val>9.0997221967170905e-01</left_val>
            <right_val>-1.4410626057588503e-02</right_val></_></_>
        <_>
          <_>
            <feature>
              <rects>
                <_>
                  17 8 6 9 -1.</_>
                <_>
                  17 11 6 3 2.</_></rects>
              <tilted>0</tilted></feature>
            <threshold>-5.0869146361947060e-03</threshold>
            <left_val>-9.1425634047922100e-01</left_val>
            <right_val>1.3790951070649919e-02</right_val></_></_>
        <_>
          <_>
            <feature>
              <rects>
                <_>
                  2 21 1 24 -1.</_>
                <_>
                  2 29 1 8 2.</_></rects>
              <tilted>0</tilted></feature>
            <threshold>-3.8382308557629585e-03</threshold>
            <left_val>1.</left_val>
            <right_val>-4.8908945331826263e-03</right_val></_></_>
        <_>
          <_>
            <feature>
              <rects>
                <_>
                  13 5 1 6 -1.</_>
                <_>
                  13 7 1 2 2.</_></rects>
              <tilted>0</tilted></feature>
            <threshold>-1.5517130668740720e-04</threshold>
            <left_val>-9.7242283729516898e-01</left_val>
            <right_val>3.4915374108325441e-03</right_val></_></_>
        <_>
          <_>
            <feature>
              <rects>
                <_>
                  11 0 3 15 -1.</_>
                <_>
                  11 5 3 5 2.</_></rects>
              <tilted>0</tilted></feature>
            <threshold>-7.0022530853748322e-03</threshold>
            <left_val>1.</left_val>
            <right_val>-1.3644330155853173e-03</right_val></_></_>
        <_>
          <_>
            <feature>
              <rects>
                <_>
                  9 0 37 27 -1.</_>
                <_>
                  9 9 37 9 2.</_></rects>
              <tilted>0</tilted></feature>
            <threshold>-1.6605554521083832e-01</threshold>
            <left_val>-9.9999999999999989e-01</left_val>
            <right_val>1.2087885182976543e-03</right_val></_></_>
        <_>
          <_>
            <feature>
              <rects>
                <_>
                  0 0 3 1 -1.</_>
                <_>
                  1 0 1 1 2.</_></rects>
              <tilted>0</tilted></feature>
            <threshold>-1.1108046601293609e-04</threshold>
            <left_val>1.</left_val>
            <right_val>-6.2485073735778197e-04</right_val></_></_>
        <_>
          <_>
            <feature>
              <rects>
                <_>
                  0 0 3 1 -1.</_>
                <_>
                  1 0 1 1 2.</_></rects>
              <tilted>0</tilted></feature>
            <threshold>-1.1248102964600548e-04</threshold>
            <left_val>-1.</left_val>
            <right_val>-8.1322341695851303e-11</right_val></_></_>
        <_>
          <_>
            <feature>
              <rects>
                <_>
                  0 0 3 1 -1.</_>
                <_>
                  1 0 1 1 2.</_></rects>
              <tilted>0</tilted></feature>
            <threshold>-1.1108046601293609e-04</threshold>
            <left_val>1.</left_val>
            <right_val>-1.3258152613704885e-14</right_val></_></_>
        <_>
          <_>
            <feature>
              <rects>
                <_>
                  0 0 3 1 -1.</_>
                <_>
                  1 0 1 1 2.</_></rects>
              <tilted>0</tilted></feature>
            <threshold>-1.1248102964600548e-04</threshold>
            <left_val>-1.</left_val>
            <right_val>3.7234788669080949e-15</right_val></_></_>
        <_>
          <_>
            <feature>
              <rects>
                <_>
                  0 0 3 1 -1.</_>
                <_>
                  1 0 1 1 2.</_></rects>
              <tilted>0</tilted></feature>
            <threshold>-1.1108046601293609e-04</threshold>
            <left_val>1.</left_val>
            <right_val>1.2331215862415575e-15</right_val></_></_>
        <_>
          <_>
            <feature>
              <rects>
                <_>
                  0 0 3 1 -1.</_>
                <_>
                  1 0 1 1 2.</_></rects>
              <tilted>0</tilted></feature>
            <threshold>-1.1248102964600548e-04</threshold>
            <left_val>-1.</left_val>
            <right_val>-4.0739900917315605e-15</right_val></_></_>
        <_>
          <_>
            <feature>
              <rects>
                <_>
                  0 0 3 1 -1.</_>
                <_>
                  1 0 1 1 2.</_></rects>
              <tilted>0</tilted></feature>
            <threshold>-1.1108046601293609e-04</threshold>
            <left_val>1.</left_val>
            <right_val>3.3501044907181830e-15</right_val></_></_>
        <_>
          <_>
            <feature>
              <rects>
                <_>
                  0 0 3 1 -1.</_>
                <_>
                  1 0 1 1 2.</_></rects>
              <tilted>0</tilted></feature>
            <threshold>-1.1248102964600548e-04</threshold>
            <left_val>-1.</left_val>
            <right_val>-3.6445201217439840e-15</right_val></_></_>
        <_>
          <_>
            <feature>
              <rects>
                <_>
                  0 0 3 1 -1.</_>
                <_>
                  1 0 1 1 2.</_></rects>
              <tilted>0</tilted></feature>
            <threshold>-1.1108046601293609e-04</threshold>
            <left_val>1.</left_val>
            <right_val>3.4702500229124133e-15</right_val></_></_>
        <_>
          <_>
            <feature>
              <rects>
                <_>
                  0 0 3 1 -1.</_>
                <_>
                  1 0 1 1 2.</_></rects>
              <tilted>0</tilted></feature>
            <threshold>-1.1248102964600548e-04</threshold>
            <left_val>-1.</left_val>
            <right_val>-3.5819623028750895e-15</right_val></_></_>
        <_>
          <_>
            <feature>
              <rects>
                <_>
                  0 0 3 1 -1.</_>
                <_>
                  1 0 1 1 2.</_></rects>
              <tilted>0</tilted></feature>
            <threshold>-1.1108046601293609e-04</threshold>
            <left_val>9.9999999999999989e-01</left_val>
            <right_val>3.4132041791380211e-15</right_val></_></_>
        <_>
          <_>
            <feature>
              <rects>
                <_>
                  0 0 3 1 -1.</_>
                <_>
                  1 0 1 1 2.</_></rects>
              <tilted>0</tilted></feature>
            <threshold>-1.1248102964600548e-04</threshold>
            <left_val>-1.</left_val>
            <right_val>-3.6128897638889252e-15</right_val></_></_>
        <_>
          <_>
            <feature>
              <rects>
                <_>
                  0 0 3 1 -1.</_>
                <_>
                  1 0 1 1 2.</_></rects>
              <tilted>0</tilted></feature>
            <threshold>-1.1108046601293609e-04</threshold>
            <left_val>1.</left_val>
            <right_val>3.4797964702379237e-15</right_val></_></_>
        <_>
          <_>
            <feature>
              <rects>
                <_>
                  0 0 3 1 -1.</_>
                <_>
                  1 0 1 1 2.</_></rects>
              <tilted>0</tilted></feature>
            <threshold>-1.1248102964600548e-04</threshold>
            <left_val>-1.</left_val>
            <right_val>-3.5526749344907758e-15</right_val></_></_>
        <_>
          <_>
            <feature>
              <rects>
                <_>
                  0 0 3 1 -1.</_>
                <_>
                  1 0 1 1 2.</_></rects>
              <tilted>0</tilted></feature>
            <threshold>-1.1108046601293609e-04</threshold>
            <left_val>1.</left_val>
            <right_val>3.4227506264635316e-15</right_val></_></_>
        <_>
          <_>
            <feature>
              <rects>
                <_>
                  0 0 3 1 -1.</_>
                <_>
                  1 0 1 1 2.</_></rects>
              <tilted>0</tilted></feature>
            <threshold>-1.1248102964600548e-04</threshold>
            <left_val>-1.</left_val>
            <right_val>-3.6093752796828081e-15</right_val></_></_>
        <_>
          <_>
            <feature>
              <rects>
                <_>
                  0 0 3 1 -1.</_>
                <_>
                  1 0 1 1 2.</_></rects>
              <tilted>0</tilted></feature>
            <threshold>-1.1108046601293609e-04</threshold>
            <left_val>1.</left_val>
            <right_val>3.8039099989479395e-15</right_val></_></_>
        <_>
          <_>
            <feature>
              <rects>
                <_>
                  0 0 3 1 -1.</_>
                <_>
                  1 0 1 1 2.</_></rects>
              <tilted>0</tilted></feature>
            <threshold>-1.1248102964600548e-04</threshold>
            <left_val>-1.</left_val>
            <right_val>-3.7319136290027761e-15</right_val></_></_>
        <_>
          <_>
            <feature>
              <rects>
                <_>
                  0 0 3 1 -1.</_>
                <_>
                  1 0 1 1 2.</_></rects>
              <tilted>0</tilted></feature>
            <threshold>-1.1108046601293609e-04</threshold>
            <left_val>1.</left_val>
            <right_val>3.3044678156986695e-15</right_val></_></_>
        <_>
          <_>
            <feature>
              <rects>
                <_>
                  0 0 3 1 -1.</_>
                <_>
                  1 0 1 1 2.</_></rects>
              <tilted>0</tilted></feature>
            <threshold>-1.1248102964600548e-04</threshold>
            <left_val>-1.</left_val>
            <right_val>-3.6623268417216466e-15</right_val></_></_>
        <_>
          <_>
            <feature>
              <rects>
                <_>
                  0 0 3 1 -1.</_>
                <_>
                  1 0 1 1 2.</_></rects>
              <tilted>0</tilted></feature>
            <threshold>-1.1108046601293609e-04</threshold>
            <left_val>1.</left_val>
            <right_val>3.7475626757095607e-15</right_val></_></_>
        <_>
          <_>
            <feature>
              <rects>
                <_>
                  0 0 3 1 -1.</_>
                <_>
                  1 0 1 1 2.</_></rects>
              <tilted>0</tilted></feature>
            <threshold>-1.1248102964600548e-04</threshold>
            <left_val>-1.</left_val>
            <right_val>-3.7825222015708699e-15</right_val></_></_>
        <_>
          <_>
            <feature>
              <rects>
                <_>
                  0 0 3 1 -1.</_>
                <_>
                  1 0 1 1 2.</_></rects>
              <tilted>0</tilted></feature>
            <threshold>-1.1108046601293609e-04</threshold>
            <left_val>1.</left_val>
            <right_val>3.8039099989479395e-15</right_val></_></_>
        <_>
          <_>
            <feature>
              <rects>
                <_>
                  0 0 3 1 -1.</_>
                <_>
                  1 0 1 1 2.</_></rects>
              <tilted>0</tilted></feature>
            <threshold>-1.1248102964600548e-04</threshold>
            <left_val>-1.</left_val>
            <right_val>-3.7319136290027761e-15</right_val></_></_>
        <_>
          <_>
            <feature>
              <rects>
                <_>
                  0 0 3 1 -1.</_>
                <_>
                  1 0 1 1 2.</_></rects>
              <tilted>0</tilted></feature>
            <threshold>-1.1108046601293609e-04</threshold>
            <left_val>1.</left_val>
            <right_val>3.3044678156986695e-15</right_val></_></_>
        <_>
          <_>
            <feature>
              <rects>
                <_>
                  0 0 3 1 -1.</_>
                <_>
                  1 0 1 1 2.</_></rects>
              <tilted>0</tilted></feature>
            <threshold>-1.1248102964600548e-04</threshold>
            <left_val>-1.</left_val>
            <right_val>-3.6623268417216466e-15</right_val></_></_>
        <_>
          <_>
            <feature>
              <rects>
                <_>
                  0 0 3 1 -1.</_>
                <_>
                  1 0 1 1 2.</_></rects>
              <tilted>0</tilted></feature>
            <threshold>-1.1108046601293609e-04</threshold>
            <left_val>1.</left_val>
            <right_val>3.7475626757095607e-15</right_val></_></_>
        <_>
          <_>
            <feature>
              <rects>
                <_>
                  0 0 3 1 -1.</_>
                <_>
                  1 0 1 1 2.</_></rects>
              <tilted>0</tilted></feature>
            <threshold>-1.1248102964600548e-04</threshold>
            <left_val>-1.</left_val>
            <right_val>-3.7825222015708699e-15</right_val></_></_>
        <_>
          <_>
            <feature>
              <rects>
                <_>
                  0 0 3 1 -1.</_>
                <_>
                  1 0 1 1 2.</_></rects>
              <tilted>0</tilted></feature>
            <threshold>-1.1108046601293609e-04</threshold>
            <left_val>1.</left_val>
            <right_val>3.6853943480044073e-15</right_val></_></_>
        <_>
          <_>
            <feature>
              <rects>
                <_>
                  0 0 3 1 -1.</_>
                <_>
                  1 0 1 1 2.</_></rects>
              <tilted>0</tilted></feature>
            <threshold>-1.1248102964600548e-04</threshold>
            <left_val>-1.</left_val>
            <right_val>-3.7893168710360303e-15</right_val></_></_>
        <_>
          <_>
            <feature>
              <rects>
                <_>
                  0 0 3 1 -1.</_>
                <_>
                  1 0 1 1 2.</_></rects>
              <tilted>0</tilted></feature>
            <threshold>-1.1108046601293609e-04</threshold>
            <left_val>1.</left_val>
            <right_val>3.6846958274683940e-15</right_val></_></_>
        <_>
          <_>
            <feature>
              <rects>
                <_>
                  0 0 3 1 -1.</_>
                <_>
                  1 0 1 1 2.</_></rects>
              <tilted>0</tilted></feature>
            <threshold>-1.1248102964600548e-04</threshold>
            <left_val>-1.</left_val>
            <right_val>-3.7918941594538497e-15</right_val></_></_>
        <_>
          <_>
            <feature>
              <rects>
                <_>
                  0 0 3 1 -1.</_>
                <_>
                  1 0 1 1 2.</_></rects>
              <tilted>0</tilted></feature>
            <threshold>-1.1108046601293609e-04</threshold>
            <left_val>1.</left_val>
            <right_val>3.2448607299588971e-15</right_val></_></_>
        <_>
          <_>
            <feature>
              <rects>
                <_>
                  0 0 3 1 -1.</_>
                <_>
                  1 0 1 1 2.</_></rects>
              <tilted>0</tilted></feature>
            <threshold>-1.1248102964600548e-04</threshold>
            <left_val>-1.</left_val>
            <right_val>-3.6623268417216466e-15</right_val></_></_>
        <_>
          <_>
            <feature>
              <rects>
                <_>
                  0 0 3 1 -1.</_>
                <_>
                  1 0 1 1 2.</_></rects>
              <tilted>0</tilted></feature>
            <threshold>-1.1108046601293609e-04</threshold>
            <left_val>1.</left_val>
            <right_val>3.7475626757095607e-15</right_val></_></_>
        <_>
          <_>
            <feature>
              <rects>
                <_>
                  0 0 3 1 -1.</_>
                <_>
                  1 0 1 1 2.</_></rects>
              <tilted>0</tilted></feature>
            <threshold>-1.1248102964600548e-04</threshold>
            <left_val>-1.</left_val>
            <right_val>-3.7825222015708699e-15</right_val></_></_>
        <_>
          <_>
            <feature>
              <rects>
                <_>
                  0 0 3 1 -1.</_>
                <_>
                  1 0 1 1 2.</_></rects>
              <tilted>0</tilted></feature>
            <threshold>-1.1108046601293609e-04</threshold>
            <left_val>1.</left_val>
            <right_val>3.6853943480044073e-15</right_val></_></_>
        <_>
          <_>
            <feature>
              <rects>
                <_>
                  0 0 3 1 -1.</_>
                <_>
                  1 0 1 1 2.</_></rects>
              <tilted>0</tilted></feature>
            <threshold>-1.1248102964600548e-04</threshold>
            <left_val>-1.</left_val>
            <right_val>-3.7893168710360303e-15</right_val></_></_>
        <_>
          <_>
            <feature>
              <rects>
                <_>
                  0 0 3 1 -1.</_>
                <_>
                  1 0 1 1 2.</_></rects>
              <tilted>0</tilted></feature>
            <threshold>-1.1108046601293609e-04</threshold>
            <left_val>1.</left_val>
            <right_val>3.6846958274683940e-15</right_val></_></_>
        <_>
          <_>
            <feature>
              <rects>
                <_>
                  0 0 3 1 -1.</_>
                <_>
                  1 0 1 1 2.</_></rects>
              <tilted>0</tilted></feature>
            <threshold>-1.1248102964600548e-04</threshold>
            <left_val>-1.</left_val>
            <right_val>-3.7918941594538497e-15</right_val></_></_>
        <_>
          <_>
            <feature>
              <rects>
                <_>
                  0 0 3 1 -1.</_>
                <_>
                  1 0 1 1 2.</_></rects>
              <tilted>0</tilted></feature>
            <threshold>-1.1108046601293609e-04</threshold>
            <left_val>1.</left_val>
            <right_val>3.2448607299588971e-15</right_val></_></_>
        <_>
          <_>
            <feature>
              <rects>
                <_>
                  0 0 3 1 -1.</_>
                <_>
                  1 0 1 1 2.</_></rects>
              <tilted>0</tilted></feature>
            <threshold>-1.1248102964600548e-04</threshold>
            <left_val>-1.</left_val>
            <right_val>-3.6623268417216466e-15</right_val></_></_>
        <_>
          <_>
            <feature>
              <rects>
                <_>
                  0 0 3 1 -1.</_>
                <_>
                  1 0 1 1 2.</_></rects>
              <tilted>0</tilted></feature>
            <threshold>-1.1108046601293609e-04</threshold>
            <left_val>1.</left_val>
            <right_val>3.7475626757095607e-15</right_val></_></_>
        <_>
          <_>
            <feature>
              <rects>
                <_>
                  0 0 3 1 -1.</_>
                <_>
                  1 0 1 1 2.</_></rects>
              <tilted>0</tilted></feature>
            <threshold>-1.1248102964600548e-04</threshold>
            <left_val>-1.</left_val>
            <right_val>-3.7825222015708699e-15</right_val></_></_>
        <_>
          <_>
            <feature>
              <rects>
                <_>
                  0 0 3 1 -1.</_>
                <_>
                  1 0 1 1 2.</_></rects>
              <tilted>0</tilted></feature>
            <threshold>-1.1108046601293609e-04</threshold>
            <left_val>1.</left_val>
            <right_val>3.6853943480044073e-15</right_val></_></_>
        <_>
          <_>
            <feature>
              <rects>
                <_>
                  0 0 3 1 -1.</_>
                <_>
                  1 0 1 1 2.</_></rects>
              <tilted>0</tilted></feature>
            <threshold>-1.1248102964600548e-04</threshold>
            <left_val>-1.</left_val>
            <right_val>-3.7893168710360303e-15</right_val></_></_>
        <_>
          <_>
            <feature>
              <rects>
                <_>
                  0 0 3 1 -1.</_>
                <_>
                  1 0 1 1 2.</_></rects>
              <tilted>0</tilted></feature>
            <threshold>-1.1108046601293609e-04</threshold>
            <left_val>1.</left_val>
            <right_val>3.6846958274683940e-15</right_val></_></_>
        <_>
          <_>
            <feature>
              <rects>
                <_>
                  0 0 3 1 -1.</_>
                <_>
                  1 0 1 1 2.</_></rects>
              <tilted>0</tilted></feature>
            <threshold>-1.1248102964600548e-04</threshold>
            <left_val>-1.</left_val>
            <right_val>-3.7918941594538497e-15</right_val></_></_>
        <_>
          <_>
            <feature>
              <rects>
                <_>
                  0 0 3 1 -1.</_>
                <_>
                  1 0 1 1 2.</_></rects>
              <tilted>0</tilted></feature>
            <threshold>-1.1108046601293609e-04</threshold>
            <left_val>1.</left_val>
            <right_val>3.2448607299588971e-15</right_val></_></_>
        <_>
          <_>
            <feature>
              <rects>
                <_>
                  0 0 3 1 -1.</_>
                <_>
                  1 0 1 1 2.</_></rects>
              <tilted>0</tilted></feature>
            <threshold>-1.1248102964600548e-04</threshold>
            <left_val>-1.</left_val>
            <right_val>-3.6623268417216466e-15</right_val></_></_>
        <_>
          <_>
            <feature>
              <rects>
                <_>
                  0 0 3 1 -1.</_>
                <_>
                  1 0 1 1 2.</_></rects>
              <tilted>0</tilted></feature>
            <threshold>-1.1108046601293609e-04</threshold>
            <left_val>1.</left_val>
            <right_val>3.7475626757095607e-15</right_val></_></_>
        <_>
          <_>
            <feature>
              <rects>
                <_>
                  0 0 3 1 -1.</_>
                <_>
                  1 0 1 1 2.</_></rects>
              <tilted>0</tilted></feature>
            <threshold>-1.1248102964600548e-04</threshold>
            <left_val>-1.</left_val>
            <right_val>-3.7825222015708699e-15</right_val></_></_>
        <_>
          <_>
            <feature>
              <rects>
                <_>
                  0 0 3 1 -1.</_>
                <_>
                  1 0 1 1 2.</_></rects>
              <tilted>0</tilted></feature>
            <threshold>-1.1108046601293609e-04</threshold>
            <left_val>1.</left_val>
            <right_val>3.6853943480044073e-15</right_val></_></_>
        <_>
          <_>
            <feature>
              <rects>
                <_>
                  0 0 3 1 -1.</_>
                <_>
                  1 0 1 1 2.</_></rects>
              <tilted>0</tilted></feature>
            <threshold>-1.1248102964600548e-04</threshold>
            <left_val>-1.</left_val>
            <right_val>-3.9024832624730187e-15</right_val></_></_>
        <_>
          <_>
            <feature>
              <rects>
                <_>
                  0 0 3 1 -1.</_>
                <_>
                  1 0 1 1 2.</_></rects>
              <tilted>0</tilted></feature>
            <threshold>-1.1108046601293609e-04</threshold>
            <left_val>1.</left_val>
            <right_val>3.6879555899697883e-15</right_val></_></_>
        <_>
          <_>
            <feature>
              <rects>
                <_>
                  0 0 3 1 -1.</_>
                <_>
                  1 0 1 1 2.</_></rects>
              <tilted>0</tilted></feature>
            <threshold>-1.1248102964600548e-04</threshold>
            <left_val>-1.</left_val>
            <right_val>-3.7825222015708699e-15</right_val></_></_>
        <_>
          <_>
            <feature>
              <rects>
                <_>
                  0 0 3 1 -1.</_>
                <_>
                  1 0 1 1 2.</_></rects>
              <tilted>0</tilted></feature>
            <threshold>-1.1108046601293609e-04</threshold>
            <left_val>1.</left_val>
            <right_val>3.6853943480044073e-15</right_val></_></_>
        <_>
          <_>
            <feature>
              <rects>
                <_>
                  0 0 3 1 -1.</_>
                <_>
                  1 0 1 1 2.</_></rects>
              <tilted>0</tilted></feature>
            <threshold>-1.1248102964600548e-04</threshold>
            <left_val>-1.</left_val>
            <right_val>-3.9024832624730187e-15</right_val></_></_>
        <_>
          <_>
            <feature>
              <rects>
                <_>
                  0 0 3 1 -1.</_>
                <_>
                  1 0 1 1 2.</_></rects>
              <tilted>0</tilted></feature>
            <threshold>-1.1108046601293609e-04</threshold>
            <left_val>1.</left_val>
            <right_val>3.6879555899697883e-15</right_val></_></_>
        <_>
          <_>
            <feature>
              <rects>
                <_>
                  0 0 3 1 -1.</_>
                <_>
                  1 0 1 1 2.</_></rects>
              <tilted>0</tilted></feature>
            <threshold>-1.1248102964600548e-04</threshold>
            <left_val>-1.</left_val>
            <right_val>-3.7825222015708699e-15</right_val></_></_>
        <_>
          <_>
            <feature>
              <rects>
                <_>
                  0 0 3 1 -1.</_>
                <_>
                  1 0 1 1 2.</_></rects>
              <tilted>0</tilted></feature>
            <threshold>-1.1108046601293609e-04</threshold>
            <left_val>1.</left_val>
            <right_val>3.6853943480044073e-15</right_val></_></_>
        <_>
          <_>
            <feature>
              <rects>
                <_>
                  0 0 3 1 -1.</_>
                <_>
                  1 0 1 1 2.</_></rects>
              <tilted>0</tilted></feature>
            <threshold>-1.1248102964600548e-04</threshold>
            <left_val>-1.</left_val>
            <right_val>-3.9024832624730187e-15</right_val></_></_>
        <_>
          <_>
            <feature>
              <rects>
                <_>
                  0 0 3 1 -1.</_>
                <_>
                  1 0 1 1 2.</_></rects>
              <tilted>0</tilted></feature>
            <threshold>-1.1108046601293609e-04</threshold>
            <left_val>1.</left_val>
            <right_val>3.6879555899697883e-15</right_val></_></_>
        <_>
          <_>
            <feature>
              <rects>
                <_>
                  0 0 3 1 -1.</_>
                <_>
                  1 0 1 1 2.</_></rects>
              <tilted>0</tilted></feature>
            <threshold>-1.1248102964600548e-04</threshold>
            <left_val>-1.</left_val>
            <right_val>-3.7825222015708699e-15</right_val></_></_>
        <_>
          <_>
            <feature>
              <rects>
                <_>
                  0 0 3 1 -1.</_>
                <_>
                  1 0 1 1 2.</_></rects>
              <tilted>0</tilted></feature>
            <threshold>-1.1108046601293609e-04</threshold>
            <left_val>1.</left_val>
            <right_val>3.6853943480044073e-15</right_val></_></_>
        <_>
          <_>
            <feature>
              <rects>
                <_>
                  0 0 3 1 -1.</_>
                <_>
                  1 0 1 1 2.</_></rects>
              <tilted>0</tilted></feature>
            <threshold>-1.1248102964600548e-04</threshold>
            <left_val>-1.</left_val>
            <right_val>-3.9024832624730187e-15</right_val></_></_></trees>
      <stage_threshold>-3.3859677314758301e+00</stage_threshold>
      <parent>4</parent>
      <next>-1</next></_>
    <_>
      <trees>
        <_>
          <_>
            <feature>
              <rects>
                <_>
                  21 36 1 3 -1.</_>
                <_>
                  21 37 1 1 2.</_></rects>
              <tilted>0</tilted></feature>
            <threshold>-8.6077372543513775e-04</threshold>
            <left_val>5.6435643564356341e-01</left_val>
            <right_val>-9.9185336048879846e-01</right_val></_></_>
        <_>
          <_>
            <feature>
              <rects>
                <_>
                  2 27 6 2 -1.</_>
                <_>
                  2 28 6 1 2.</_></rects>
              <tilted>0</tilted></feature>
            <threshold>-3.5375669540371746e-05</threshold>
            <left_val>7.3536058106472912e-01</left_val>
            <right_val>-9.2393073835518358e-01</right_val></_></_>
        <_>
          <_>
            <feature>
              <rects>
                <_>
                  29 13 2 9 -1.</_>
                <_>
                  30 13 1 9 2.</_></rects>
              <tilted>0</tilted></feature>
            <threshold>3.3843377877929015e-06</threshold>
            <left_val>-8.5219058228147637e-01</left_val>
            <right_val>6.5896273612835932e-01</right_val></_></_>
        <_>
          <_>
            <feature>
              <rects>
                <_>
                  2 27 39 20 -1.</_>
                <_>
                  2 37 39 10 2.</_></rects>
              <tilted>0</tilted></feature>
            <threshold>1.7186035402119160e-03</threshold>
            <left_val>-5.8498549121954146e-01</left_val>
            <right_val>6.8214772467699791e-01</right_val></_></_>
        <_>
          <_>
            <feature>
              <rects>
                <_>
                  3 44 8 2 -1.</_>
                <_>
                  3 44 4 1 2.</_>
                <_>
                  7 45 4 1 2.</_></rects>
              <tilted>0</tilted></feature>
            <threshold>-4.4851192797068506e-05</threshold>
            <left_val>8.1605373142335658e-01</left_val>
            <right_val>-1.9056351057383553e-01</right_val></_></_>
        <_>
          <_>
            <feature>
              <rects>
                <_>
                  7 42 12 2 -1.</_>
                <_>
                  7 42 6 1 2.</_>
                <_>
                  13 43 6 1 2.</_></rects>
              <tilted>0</tilted></feature>
            <threshold>5.5970164248719811e-04</threshold>
            <left_val>1.8588545024927444e-01</left_val>
            <right_val>-9.8331488905123188e-01</right_val></_></_>
        <_>
          <_>
            <feature>
              <rects>
                <_>
                  13 23 14 4 -1.</_>
                <_>
                  13 23 7 2 2.</_>
                <_>
                  20 25 7 2 2.</_></rects>
              <tilted>0</tilted></feature>
            <threshold>4.0773134678602219e-03</threshold>
            <left_val>-1.5421327337792071e-01</left_val>
            <right_val>9.9118699794726994e-01</right_val></_></_>
        <_>
          <_>
            <feature>
              <rects>
                <_>
                  5 35 36 8 -1.</_>
                <_>
                  5 35 18 4 2.</_>
                <_>
                  23 39 18 4 2.</_></rects>
              <tilted>0</tilted></feature>
            <threshold>-7.0525705814361572e-03</threshold>
            <left_val>-8.3757101360521036e-01</left_val>
            <right_val>1.3714638998542777e-01</right_val></_></_>
        <_>
          <_>
            <feature>
              <rects>
                <_>
                  3 10 2 21 -1.</_>
                <_>
                  4 10 1 21 2.</_></rects>
              <tilted>0</tilted></feature>
